Layer Name: conv2d
Weight 1 - Shape: (3, 3, 1, 1)
1.3907729, 0.9876051, 0.85389495, 0.45254803, 0.43841147, -0.0520934, 0.055339117, -0.4058364, -1.0525755

Layer Name: conv2d
Weight 2 - Shape: (1,)
-1.1154066

Layer Name: conv2d_1
Weight 1 - Shape: (3, 3, 1, 1)
0.8554264, 1.2299895, -0.0013844664, 1.2397157, -0.09884361, -0.6589827, 0.4648149, -0.6930154, -0.41134197

Layer Name: conv2d_1
Weight 2 - Shape: (1,)
-0.2039138

Layer Name: conv2d_2
Weight 1 - Shape: (3, 3, 1, 1)
0.021040687, -0.7302441, -1.12438, 0.003651276, 0.9368562, -0.16710745, -0.20741907, 0.25789988, 0.8426204

Layer Name: conv2d_2
Weight 2 - Shape: (1,)
0.69274706

Layer Name: dense
Weight 1 - Shape: (4, 32)
-0.29776114, 0.047957648, 0.5860731, 0.19346268, -0.27402523, -0.0898681, 0.20491645, 0.27275598, -0.18206458, 0.07581143, 0.27367428, -0.14413187, 0.7426758, 1.0128862, 0.45383608, 0.5305224, 0.33554637, -0.4925542, 0.25096744, -0.33034188, 0.40161088, -0.11086917, -0.56331646, 0.34475958, -0.26612994, 0.44232157, -0.49613905, -0.06285411, 0.29332408, 0.5600855, 0.18760401, 0.5384429, -0.101466626, 0.34231517, 0.4110456, 0.5894415, 0.6670453, -0.3786328, -0.118647985, -0.30850506, -1.0039591, 0.011060887, -0.4163853, -0.014500052, 0.08657734, -0.30544958, 0.0016106012, -0.939026, 0.47610053, 0.71674335, -0.2430937, 0.41300812, 0.18227032, -0.21496405, 0.10358504, -0.2357221, -0.069335386, 0.44713432, 0.165182, -0.105956614, 0.4404685, -0.31882656, 0.30020314, -1.0309819, 0.14020693, 0.26502508, -0.87442106, 0.03946435, -0.28821012, 0.14691833, 0.08728394, 1.0866406, -0.3366604, -0.17801775, 0.21790572, -0.0027249753, 0.6822976, -0.8818805, -0.19906068, 0.51151735, -0.65832824, 0.2729269, 0.5635344, -0.5183583, 0.5735872, -1.5326809, 0.800309, 0.30302903, -0.3048422, -0.4497807, 0.4530735, -0.39751956, 0.25820935, -0.8885858, -0.6356026, 0.03636269, -0.29709628, 0.30635285, 0.42667723, -0.49110496, -0.2516244, 0.5821343, -0.31220558, 0.37880427, 0.50013685, 0.31770205, -0.20893504, -0.18392725, -0.37921423, -7.04742e-05, 0.3265627, -0.10647642, 0.5189552, -0.05022964, -0.25317487, 0.7337402, -0.7573033, 0.7522297, -0.7601742, 0.73093843, 0.05659928, 0.07034689, 0.73665416, -0.21326353, -1.5002662, -0.29396045, 0.73729885, 0.20908296

Layer Name: dense
Weight 2 - Shape: (32,)
0.4305213, -0.5970518, -0.49155945, -0.22074546, 0.3911219, 0.5598145, 0.50515234, -0.65824175, 0.61475724, -0.08225997, 0.7792218, 0.0, -0.67001784, -0.68703353, -0.2581635, 0.26299414, -1.0650907, -0.088963285, 0.43102455, 0.5696341, 0.258646, 0.55847013, -0.24459814, -0.79389054, -0.052148517, -0.21352205, -0.4071873, 0.0, -0.57401544, 0.88574475, -1.275324, 0.008557136

Layer Name: dense_1
Weight 1 - Shape: (32, 32)
1.0523126, -0.059964262, -0.59640163, -0.18994358, 0.22612724, 0.0955987, 0.16727212, 0.49643636, 0.26207614, 0.3411531, 0.19356915, 1.0653157, -0.29462463, -0.12673019, -0.06425714, -0.16760811, -0.17486593, -0.13157019, -0.45004272, -0.15268755, -0.5815825, 0.73106587, -0.9751526, -0.40307322, 0.57746327, 0.124439076, -0.3370226, 0.73539525, 0.39056218, -0.54128903, 0.47055766, -0.06827049, -0.014654446, 0.15924224, -0.42385864, -0.38243687, -0.16070281, -0.17441365, -0.28732902, -0.0060800705, 0.6221763, 0.2446686, -0.17918831, -0.17989205, -0.12681995, 0.4447782, 0.1612164, 0.52173436, 0.4944679, 0.4504539, 0.10642733, -0.0054436424, -0.08521417, 0.53062594, 0.2456981, 0.07097483, -0.38480905, -0.082462244, -0.1013737, -0.24741499, -0.17681554, -0.45790836, 0.19051524, 0.11767328, -0.074996464, -0.11182265, -0.91200596, 0.13195461, 0.16181375, -0.30818355, 0.047102157, 0.5799664, 0.03317659, -0.16030106, -0.36731693, 0.10637125, -0.08463326, -0.024238884, 0.12645432, -0.5554661, 0.49155444, -0.12313356, -0.14063068, 0.8890065, 0.9929017, -0.09863063, -0.27097055, 0.5480166, 0.2437757, -0.27649662, -0.021197006, 0.36536992, -0.84956884, -0.5549393, 0.6201639, 0.25624886, -0.13518965, 0.50246346, 0.12906486, -0.26656798, 0.14423004, 0.21326365, 0.0334372, -0.026876492, -0.7955436, 0.36315843, -0.37600467, -0.51592815, -0.24600586, -0.618633, 0.03309944, 0.26188263, -0.21710777, -1.6979296, 0.054407686, 0.33797184, -1.9911473, 0.588628, 0.29743767, -0.23827948, 0.23856942, -0.5284638, 0.096842766, -2.0658278, -0.3144802, 0.22899912, 0.29264477, 0.05346504, -0.0015117099, 0.16175205, 0.0065560425, -0.35944957, 0.14566568, -0.21831813, -0.24409164, 0.16279608, -0.33905447, 0.36637616, 0.18266669, -0.16067934, -0.10094872, 0.23890978, 0.24540728, 0.12809359, 0.016974192, -0.740451, -0.415511, -0.0053695487, -2.2546692, 0.22222655, 0.068970844, 0.014339332, 0.3039504, -2.3191934, 0.15855175, -2.680701, 0.22423714, 0.8719911, -0.076065645, 0.072196245, 0.5380082, 0.0375414, -0.07058461, 0.14456306, -0.10396904, -0.027884327, -0.35401294, -2.6462934, 0.36219275, -0.34352446, -0.2562945, -0.19004855, -0.026229948, 0.48654547, -0.05996673, 0.5874031, -0.3442266, 0.33030623, 0.19244947, 0.1924209, 0.29710317, 0.25995484, -0.10460178, -0.46491325, 1.0185977, -0.17553736, 0.14802308, 0.5730542, 0.09696635, 0.1706604, -0.396413, -0.29588223, 0.27226135, -0.9524192, 0.27660918, -0.26325792, 0.014590312, 0.10679387, -0.3427874, 0.49635816, 0.0926211, -0.11953346, -0.08236114, 0.20501494, -0.29733995, -0.0007702487, -0.20887986, 0.18551855, -0.5098427, -0.9485273, 0.07861725, 0.24730653, -0.18758076, -0.1418073, 0.48673317, -0.11968258, 0.34404057, -0.13522007, -0.26596493, 0.13095619, 0.1854807, 0.17509486, 0.025837965, 0.048336774, 0.12164209, 0.39377746, -0.1891986, -0.004453389, -0.2651383, -0.13934295, 0.18645707, -0.74087214, 0.44302592, 0.2386914, 0.02297783, 0.21599843, -0.28107888, 0.33318952, -0.68535745, 0.6688226, 0.80085397, -0.0025008165, 0.5837697, -0.04169394, 0.4661799, 0.33463526, -0.329387, -0.2350053, -1.0485293, 0.41688555, -0.31617358, -0.16282102, -0.73888904, -0.57594645, -1.8234013, -0.14021042, 0.721599, -0.07286611, -4.2939553, -0.10399883, -0.29413393, 0.25350407, -0.27817273, 0.13211863, -0.036654875, 1.3570518, 0.20026353, -1.3217094, 0.23106447, -0.7523708, 0.3767482, 0.28230825, 2.1750138, -0.9977194, 0.28928128, -0.2797506, 0.2578463, 1.4634413, -1.0172477, -1.017928, 0.4678891, 0.60912156, 0.13062115, 0.6681353, -0.09510343, 2.1588032, 0.051463936, 0.0823338, 0.090939134, -0.94744986, -0.0047133095, -0.40044364, 0.021960203, -0.01479023, -0.092480704, 0.17306018, 0.5678214, 0.25011656, 0.1464783, 0.051692955, -0.29518119, -0.022516103, -0.044418257, 0.1063297, -0.058834832, 0.17191623, 0.14834224, 0.5019542, -0.30892378, 0.08243817, 0.25454205, 0.38236108, 0.03902783, 0.19305807, -0.019010093, 0.04450571, -0.15496033, 0.42913747, 0.3313657, -0.26841053, 0.6515265, 0.15140922, 0.15323466, -0.3388336, 0.17676371, -0.3353271, 0.2088819, 0.17435054, 0.4352325, -0.11679344, 0.12164634, 0.06095764, 0.21688011, 0.38628733, -0.21548669, 0.4929685, -0.48927823, -0.49443403, 0.07420242, -0.08835526, -0.26711655, 0.0030516898, 0.2865043, -1.7541703, 0.23508982, -0.27364194, -0.090996146, 0.052674793, 0.48297808, 0.35923004, 0.045569826, -0.1624936, 0.27600846, -0.081866324, -0.26211774, -0.201767, -0.15670204, -0.1281306, 0.1763969, 0.16943735, 0.013185054, -0.29810178, -0.04004973, -0.09642394, -0.23692651, -0.13059531, 0.03567022, -0.2854124, 0.23926082, 0.19453886, -0.26716587, -0.2820205, 0.18790457, -0.08859937, 0.2672191, -0.29323703, -0.13909031, 0.06915811, -0.0952798, -0.2869855, 0.044429272, 0.093238264, 0.16534823, 0.07866612, -0.73333234, -0.5461023, 0.24267635, -0.1928939, -0.11302921, 0.26372537, -0.25714737, 0.50291806, -0.06464733, 0.39144394, -0.056245875, 0.3399589, 0.096033305, -0.44217956, -0.52781296, 0.31911656, 0.27464506, -2.9976661, 0.45241976, -0.009030171, 0.02282567, -0.5101306, -0.036097024, -0.13189383, -2.385429, 1.1819929, -0.08386307, 0.81151474, -2.014962, 0.09864461, 0.9279478, -0.11887786, 1.1281089, 1.334402, -0.16082454, -0.35357475, -0.28869078, -0.08595383, -0.24900998, -1.093891, -0.96149594, 1.3909186, 0.28446218, -2.3476894, -0.110054225, -0.32713446, 0.002684849, -0.49656442, 0.9772926, -1.0957657, 0.9582872, -0.25437668, -0.8513937, -0.5444273, 1.419119, 0.41875285, 0.6572795, 0.10426397, 0.15616548, 1.1433134, 0.15110713, 0.89323604, 0.4751041, -0.27978224, 0.09216394, -1.0827469, -0.04313607, 0.12585446, -0.32202545, -0.23428357, 0.013708316, 0.17534119, 0.5198385, 0.22748704, -0.29612568, 0.091330685, 0.20716783, -0.11246642, -0.056940127, 0.31731847, 0.20917897, 0.052516356, 0.16140823, 0.27937824, -0.47935548, 0.13919565, 0.36586374, 0.25329405, 0.07660019, -0.07453095, -0.22153492, 0.08043939, -0.6699292, 0.45027697, 0.5343004, -0.028007805, -0.020147571, 0.04720811, 0.092433795, -0.3222349, -0.22611101, -0.32063702, -0.15885271, 1.1025676, 0.60639864, -0.8594903, -0.09551068, 0.20606172, -0.26698688, 0.08414715, -2.919899, 0.31066525, 0.5479816, 0.63958985, -0.3847498, -1.9594464, 0.23244454, -0.9659577, 0.45857474, -0.78140056, 1.2928292, 0.45633483, -0.31872907, 0.35171938, 0.47315028, 0.35915223, 0.42771032, -0.09428203, 1.4493767, -2.2623, 0.49801695, 0.11410484, 0.07218663, 0.1306101, -0.23733202, 1.046935, 0.0001712657, 0.26996642, -0.01704392, 0.5583689, -0.017817944, 0.049925223, 0.2823157, -0.66295147, -0.13807856, -0.6512717, -0.52612585, 0.80940616, 0.58083135, 0.2190599, -0.7693658, 0.5197733, 0.19884497, -3.226052, -0.03816857, -0.72098774, 1.5821935, 0.3527328, 0.7007479, 0.13651484, -1.0078466, 0.7747801, 0.037954845, 0.1698892, -0.32000408, 0.051097207, -0.2038817, 0.0025380156, -0.54995453, 1.0624298, 0.09590088, -1.2639983, 0.101114154, -0.32453153, 0.51231855, 0.59908885, 0.16933288, 0.33262944, 0.19166403, -0.14001608, 0.14561397, 0.22677724, -0.07612082, 0.48051196, 0.1410676, -0.38462216, -0.028709013, -2.3692017, 0.27128145, -0.19729422, 0.30624607, -0.25062856, 0.6753707, -0.22667333, 0.49876648, -0.26460236, 0.09260534, -0.2870288, 0.022126818, 0.20769672, 0.5231619, -0.26162732, -0.2016038, 0.24008566, -0.007665336, 0.077715755, -0.22281511, 0.29710776, -0.3085778, -0.6253251, 0.24048835, -0.40566078, -0.090038866, -0.18906929, 0.19593215, -0.987752, 0.025596764, -0.22864828, -0.032967094, 0.08133878, 0.29169303, -0.020240804, 0.05988743, -0.24958217, 0.014450717, -0.036227256, -0.20724905, -0.0228499, -0.14761165, -0.3348719, 0.21623012, -0.1447578, 0.13137949, 0.56682396, -0.16543874, -1.6435806, -0.1654459, 0.46269134, 0.27063936, 0.05819439, -0.21275555, 0.43124694, 0.083345786, 0.26777422, -0.3343603, 0.706623, 0.26871437, 0.21649045, -0.020051908, -0.4871118, -0.084992945, -1.1496618, 0.21353507, 1.1436944, 0.07503637, 0.01300621, -0.004770417, -1.4933554, 0.6219489, 0.1554238, -0.15869048, 0.24015339, -0.20431964, 0.027791306, 0.88424176, -0.02640212, 0.08838205, 0.6406983, -0.2929702, -0.16246754, -0.27804437, 0.13870129, -0.43764398, -0.75963444, -0.62663716, -0.13477981, -0.12114519, -0.22955455, -0.18154773, -0.15667266, 0.13454974, -0.0456891, -0.20920752, -0.21833657, 0.8083996, -0.24678868, -0.38911483, -0.2573225, -0.59511846, 0.32957715, -1.1377589, -0.09949292, 0.06481019, -0.045406222, -0.09473754, -1.5191544, -0.36850122, -1.3516405, -0.24737646, 2.1915216, -0.11094585, 0.8351209, -3.349522, -1.6686873, 0.2422159, 0.090480335, 1.1672044, -2.650227, -1.0698004, -0.8455681, 0.5877373, 0.19396274, -0.20775394, 0.21270448, -0.39633036, 1.2530345, -0.3128727, -0.25104493, -0.21760844, 0.25230357, -0.39357534, 1.046856, 1.4570863, -0.05267188, -0.20546263, 0.005893842, -0.1782247, 2.740894, 0.46638608, -0.8918048, 0.10693738, -1.0802689, 0.20147899, 0.17345518, 0.29286432, 0.66635716, 0.23458834, -1.1497818, 0.9898957, 0.395755, -0.5941075, 0.14027934, -0.09032708, 0.76916194, -0.2236571, -0.85760635, 0.13930708, 0.46511617, 0.86511123, 0.5161282, 1.2775227, 0.017683208, -0.6668235, 0.18960999, -1.1453149, 0.116736606, 0.028764749, -0.2121641, 0.13818344, 0.15212964, 0.3495739, 0.6626921, -0.29952848, -0.31643897, -0.16063815, 0.5065168, -0.04433496, 0.25832543, 0.77839565, 0.6195198, 0.41389495, -0.024226252, -0.12194699, 0.29239756, 0.4620697, 0.1504452, -1.7147005, 0.4004372, -0.18361415, -0.23759435, -0.29266268, -0.7163031, -0.06259802, -0.0380888, -0.03719491, -0.1563528, -0.17683674, 0.18492784, -0.2627335, 0.22385606, 0.21242025, -0.038260214, -0.2818578, -0.12189925, -0.2864148, 0.18361114, 0.15650523, 0.001758505, 0.09192285, 0.0748903, 0.072081335, 0.003558983, -0.27825075, 0.2541835, 0.15855706, 0.3436768, -0.012601047, -0.07100256, 0.19777253, -0.1826066, 0.21887055, -0.072215505, 0.061107606, -0.09528862, -0.18153964, 0.24877855, -0.80668133, -0.09796567, -0.18433753, 0.037155677, -0.10403686, -0.33234093, -0.21327817, -0.09711219, -0.060195304, 0.15265638, -0.002650537, 0.31449118, -0.10224776, 0.00045601395, -0.07862203, -0.22722934, 0.24710958, -0.26343372, 0.033574298, 0.38686952, -0.37991664, 0.5720081, -0.07559802, 0.13532908, -0.19674735, -0.19404137, -0.33485737, -0.24609865, -0.56575143, 0.2941954, 0.15809666, -0.13358009, -0.66289264, 0.7262394, 0.38181072, -0.23115948, -0.28331196, 0.14598757, -0.037451483, -2.5923102, 0.029393356, 0.48543656, -0.297922, -0.20283437, 0.20976475, -0.11226951, 0.7382477, -0.03637639, -0.34533805, 0.45275417, 0.32099602, 0.09469627, 0.59502643, 0.013815895, -0.36450264, -0.0027007181, -1.049681, 0.2841902, 0.078427434, 0.3476537, -0.13991112, -0.30610862, 0.62039864, -0.2927413, -0.06849891, -0.23806489, 0.06364116, 0.12763178, 0.20031276, -0.22078705, 0.15233609, 0.272077, 0.19172993, 0.20336023, 0.16544181, -0.13410467, -0.13269131, -0.01363948, -0.13392684, 0.097138256, 0.30450973, 0.15504771, -0.30520818, 0.30563787, 0.22598568, -0.0890595, 0.019441277, -0.17548944, -0.16413933, 0.04407099, -0.24397273, -0.26907775, -0.13161083, 0.1368714, 0.12084317, -0.1062617, 0.20200245, 0.6240704, 0.5251682, -0.25112903, -0.33558336, -0.07823426, -0.30338383, -0.37194884, 0.09491952, 0.3253415, -0.33681703, -2.2809684, 0.033405036, -0.11153705, -1.0480895, 0.32310998, 0.8160913, 1.5024054, -7.59152, 0.6823232, -2.1682673, 0.12056765, 1.2103196, -1.5083243, 0.37161693, -3.776395, -0.13740307, 1.8244654, 0.6470766, 0.73702794, 0.20779626, -0.08965504, -0.12706058, 0.55377364, 0.524379, 0.18929228, -0.14849631, 0.2914805, 0.27401042, -0.6918351, -0.53852785, 0.7272014, -0.2851572, 0.5002264, -0.22843298, -0.35971734, 1.6612016, 0.027280018, -0.8920446, 1.0771834, -0.4777515, -1.1977646, 1.2913179, -0.27175972, 0.79867125, 0.22214194, -2.6446917, -0.9364547, -0.082096934, -0.24712814, 0.71293545, -0.33720064, -0.15641323, -0.26642382, -0.64750296, -3.5998585, -2.2431426, -0.02431075, 0.009860566, -0.19642451, -0.1706532, -0.52235776, 0.14367853, -0.5521603, 0.24432276, 1.6278903, 0.1800119, 0.42106625, -0.3946132, -0.037403338, 0.88237077, -3.5122368, -0.31159794, 1.3420041, 1.4590957, -0.5063144, -0.06272207, 0.7573912, 0.70288473, 0.27585843, -0.18574063, -1.0948925, -1.1959172, 0.4290028, -1.3500754, -0.28005672, -0.23858896, 0.96178764, 1.1828965, -0.044927824, -0.0325104, 0.12809789, -0.09725548, -3.699802, -1.3976893, -0.14746672, -0.08948721, 0.34576902, 0.07535526, -1.5076879, -0.23990794, 0.48907188, -1.6501869, -1.3521569, 0.57777035, -0.8700127, 0.7430773, 0.99692166, 0.6596042, 0.93869555, 0.64143825, -0.51677734, -0.2185713, -0.0034600156, 0.52991396, 0.92472774, 0.8212444, 0.14034387

Layer Name: dense_1
Weight 2 - Shape: (32,)
0.84446156, -0.2600925, 0.06419286, -0.073626086, -0.06698031, -0.063467145, -0.074184574, 0.060560107, 0.3421338, -0.012592598, -0.068347305, -0.032949384, 0.0, 0.5423496, -0.030275641, -0.2986635, -0.69843197, -0.051625457, -0.45512095, -0.1008139, -0.44988415, -0.047510978, -0.17670128, -0.5085357, 0.47830558, -0.55470496, -0.108954124, -0.23162232, 0.43885812, 0.42735368, -0.38175318, 0.0

Layer Name: dense_2
Weight 1 - Shape: (32, 12)
0.28238943, -1.2594846, 0.5922837, 0.2598948, -0.3404788, -1.4741704, -0.01812026, -0.3308675, -0.8192976, -0.31011823, -0.06219927, 0.911092, 1.2830299, -0.51725835, 0.47012436, 0.690291, 0.33244458, -0.7208111, 1.6722653, 0.59897697, 0.80067146, 0.16703907, 0.16929418, -0.96335465, 0.10509589, -0.07496724, 0.5288521, 0.31556645, -1.4356828, -0.043499537, 1.5536442, 0.8703042, 0.9520386, -0.2635005, -0.2582725, 0.8922707, -0.23667316, -0.09424904, -0.20961659, 0.086438045, 0.103236, 0.12759508, -0.10681543, 0.2843169, -0.33568853, -0.048787177, -0.31962124, -0.25798765, 0.02691235, 0.31214342, 0.30727363, 0.03870771, 0.303067, 0.12353514, 0.20583498, 0.32377523, -0.051456854, -0.2976051, -0.0037541986, -0.04773041, 0.05703086, 0.11926165, 0.22455466, 0.22853427, 0.24099842, -0.1356845, 0.2513206, -0.34349802, -0.26400363, -0.24905908, 0.3608707, 0.26337945, -0.03697325, -0.3644319, -0.09075752, -0.25475302, 0.21245489, -0.15645507, -0.16146441, 0.30585012, -0.2094622, 0.02247253, -0.052120805, -0.26304543, 1.3180777, 1.206911, -2.6665552, 0.14030986, 1.0347083, 0.75907475, 1.7678838, -0.29357785, 0.7902368, -0.043444723, -0.053478546, 0.13067693, 0.17780106, -0.3222935, -0.26777506, 0.00058012444, -2.791971, 0.7806048, -0.33258003, -0.25959942, -0.9184294, -0.3687994, -0.11381043, -0.25154895, 0.4507546, 0.55121535, 0.46162578, 0.7187755, 0.09793032, 0.6240718, 0.36528528, 0.28738767, 0.2780506, -0.15936904, -0.05482801, -0.016767215, -0.1750321, 0.004583387, 0.06658757, 0.030170586, -0.2921837, 0.32926756, 0.04864707, 0.01990493, -0.054824546, -0.066783905, 0.028936258, 0.2609658, 1.1899949, -0.3254523, -0.9221621, -2.1590097, -0.56329656, 0.76391304, 1.24878, -0.87641793, 0.6285166, -0.04980144, -0.08016243, -1.1683056, 0.3242714, 0.28747824, -0.14899664, 0.1207557, -0.259488, 0.20745084, 0.24590787, 0.08077273, -0.23604614, -0.24156688, -0.03155774, 0.06539479, -0.09600722, -0.6897084, -0.30191186, 0.01303197, -3.2346082, 0.25891414, -0.07660324, -0.63737285, -0.07527498, -0.30592507, -0.116697714, 0.14656726, -1.1293511, -0.24694626, 0.018022418, -0.8062039, 0.53489125, 0.5481611, -0.52876925, -1.1014047, -0.31648132, -0.092247576, -0.23720556, 0.47066095, -0.62886685, -0.96728677, 0.12811226, 0.22732235, -0.5545446, -0.39473903, -1.560927, 0.32994843, -0.039736606, -0.060940832, 0.09587222, 0.43199977, -0.07139739, -0.05764962, 1.4486092, -1.2822282, 0.2573904, -1.208465, -0.48310834, -0.95224947, -0.29182136, -0.17503291, 0.04916251, 0.7345643, 0.1724559, 0.8632172, -1.4327809, 0.34088248, -0.17526606, 0.016399642, 0.87550724, -0.555554, 0.8404043, -0.31345987, -0.032551073, -2.0406516, -0.17584828, -0.45968843, 0.10262563, -0.28782874, -0.40445402, -0.077669814, 0.11829562, 0.7327303, 1.0397531, -0.116560966, -0.31239173, -0.35806835, -0.85331255, 0.48146427, 0.6170833, -0.41867605, 0.55190116, -0.8681938, 0.4882581, 0.13588162, 0.87625295, 0.2098544, -0.17000757, 0.6251121, 0.4199777, 0.21743259, -1.7154564, -0.3785111, 0.19974111, 0.2881531, 0.07752286, -0.9977997, 0.6760527, 0.1321421, 0.09441754, 0.033910483, 0.21153219, 0.67780346, 0.49204615, -0.20455833, -1.7597604, -0.06575355, -0.004950201, 0.8178912, 0.6338625, -0.06303078, 0.027044572, -0.73164856, -0.25547498, -0.1123599, -0.107923135, 0.7837933, 0.15240669, -0.54290324, -0.25719896, 0.44270077, 0.23871681, -0.08280569, -0.08139363, 0.10726774, 0.8585859, 1.171487, -0.3709183, -0.47669375, 0.25046846, -0.17737198, 0.18783684, 0.7996715, 0.6968148, -0.3151449, 0.33301806, -0.24965626, 1.6239924, 0.8733015, -0.5440495, -0.19688733, -0.24413885, 0.010828263, 1.3385257, 0.26589993, 1.6991698, -0.12546489, -0.08103789, -1.8631121, -0.3986638, 0.18381695, 0.740102, -0.30469745, 0.22986166, -0.9586772, 0.53394043, 0.41630238, 0.32723272, 0.05341062, -0.33279237, -1.7051941, 0.032134444, 0.08658727, -0.3246948, -0.03957144, 0.12681422, 0.18863648, 0.33512565, 0.41202503, -0.19175081, -0.13982065, 0.054440618, 0.3204452, 1.108404, 1.6560212, 1.5483469, 0.8298584, -3.7532544, -2.1450052, 0.19027929, -0.24257576, 0.63928074, -0.16750877, 0.27029538, 0.19952072, 1.4270524, -1.6440433, -0.33693698, -0.95973855, 0.28880963, 1.0855787, -0.5798231, -2.7717607, 0.3912236, 0.2707313, 0.2706518, 0.46972254, -0.030495252, 0.4026867, 0.53666866, -0.0010581545, -0.5208068, 0.17280705, 0.38666165, 0.6253025, -0.28690305, 0.06394246, -0.19304943, 1.0097954, -0.3238645, 0.783288, -0.80837125, -0.1760927, 0.12004722, 1.0204842, -0.2818425, 0.5323715, 0.13636738, -0.36855182, -0.04507438, 0.5342142, -0.29029164, 0.030094028, -0.26332158, -0.26735997, -0.30040616, 0.11842215, 0.036772013, 0.20559993, 0.2885774, 0.16017047, -0.17639925, 0.20681831

Layer Name: dense_2
Weight 2 - Shape: (12,)
0.45282778, -0.42525026, 0.02953268, 0.23190653, -1.1701788, 0.22672565, 0.368583, -0.32142153, -0.67665154, 0.0, -0.0159861, 0.2974225

Layer Name: dense_3
Weight 1 - Shape: (12, 4)
0.42421767, -0.34749573, -1.5283566, -0.30987152, 1.1245651, 0.69449615, -1.2690879, -0.36899596, 0.46314782, 1.1340982, 0.14926487, -1.443677, 0.9813395, 0.85573286, -1.5278502, -0.43021384, 4.3924365, -0.84414536, -4.582266, -5.5990863, -0.86936647, 0.94226974, -0.30583766, 1.5620064, 0.20089342, 0.16519679, -0.33062813, -2.6007657, 0.4514349, -1.1073818, 1.303747, 0.5142886, -0.10362115, -2.0151227, 1.0205277, 0.22662826, 0.48861605, 0.262801, -0.5902843, 0.18735236, 0.3209858, 0.11177112, 0.02536747, 0.4207943, -1.4675419, 0.048712343, 0.89959794, 0.8027223

Layer Name: dense_3
Weight 2 - Shape: (4,)
0.22563952, -0.7399443, -0.03430738, 0.60870904

