Layer Name: conv2d
Weight 1 - Shape: (3, 3, 1, 1)
0.9423577, 0.33224988, 0.23230273, -0.4089765, -0.564976, 0.14419134, -0.41389722, -0.42852703, -0.16944346

Layer Name: conv2d
Weight 2 - Shape: (1,)
0.20919941

Layer Name: conv2d_1
Weight 1 - Shape: (3, 3, 1, 1)
1.1185685, 1.8297772, 1.3253332, 0.9680613, 0.2597021, -0.14653741, 0.11814816, 0.04123815, -1.0609336

Layer Name: conv2d_1
Weight 2 - Shape: (1,)
-0.019494094

Layer Name: conv2d_2
Weight 1 - Shape: (3, 3, 1, 1)
-0.469597, 0.07966816, -0.43867484, -0.44141594, 0.13277881, -0.785245, -0.1589706, 1.4360347, 1.4594173

Layer Name: conv2d_2
Weight 2 - Shape: (1,)
0.25230733

Layer Name: dense
Weight 1 - Shape: (6, 64)
0.13708566, -0.51324266, 0.015302392, -0.027953742, -0.25017712, -0.30221602, -0.46979633, 0.43537316, -0.08688259, -0.6214952, -0.62969553, -0.016719336, 0.0542598, 0.44155654, 0.13855793, 0.18773913, 0.04577918, -0.1100563, -0.102710985, -0.58758694, 0.2205151, -0.6925358, 0.0727439, -0.17434053, -0.42370915, -0.8806802, -0.1320666, -0.21517624, -0.41091177, 0.48432434, -0.3890944, 0.17350425, -0.29740804, -0.6247916, -0.5031101, -0.4843132, 0.4213414, -0.20512573, -0.11139037, 0.0627828, 0.20955355, -0.4307613, -0.09271845, -0.38781098, 0.17206593, -0.4528562, 0.35981232, 0.33993962, 0.36770383, -0.104527384, 0.2034429, 0.15111399, 0.00028595695, 0.26533493, -0.26207623, 0.2127098, -0.39470124, -1.2754219, 0.81285524, 0.1216237, 0.3770706, 0.5559489, 0.15504244, -0.032460395, 0.105229504, 0.35236698, -0.32810336, -0.07000882, -0.067199394, 0.13627994, -0.24432887, -0.30962148, 0.11037291, -0.028367376, -0.28509602, -0.22580501, 0.20404054, -0.11915107, -0.4120533, 0.3354758, -0.24488279, 0.050633784, -0.4275497, -0.15948673, -0.035050254, 0.21907741, -0.10533701, -0.33420873, 0.58065885, 0.5321332, 0.48269945, 0.28964415, 0.30381957, 0.06582468, -0.103486545, 0.018579124, -0.15472169, 0.04317211, -0.061167106, 0.47787032, 0.027601236, -0.15819763, -0.56892663, 0.27328894, -0.08381022, 0.67583734, -0.037632167, -0.5106215, 0.19820695, -0.54693604, -0.30573457, -0.7414604, 0.14733234, 0.0008791263, -0.63503057, -0.32880068, -0.012069923, 0.012648064, -0.38015658, -0.2694523, 0.16021718, -0.309693, -0.29482484, -0.012919366, -0.2643323, -0.35927862, -0.53861874, 0.37259674, 0.07966264, -0.2971933, 0.23352621, 0.35126132, 0.5860064, -0.52063817, 0.13610928, 0.38338572, -0.58817977, 0.0497894, 0.51525414, -0.25146773, -0.11408987, -0.7313076, -1.1468781, -0.47641525, 0.28091082, -0.24147087, 0.6217673, -0.35908607, -0.25012863, -0.687207, 0.37408412, 0.0895001, 0.0598499, 0.08765079, 0.26277795, 0.010424172, 0.13710377, -0.03294465, 0.4434002, -0.41635418, 0.09984328, -0.13719659, 0.06765458, -0.598189, 0.09935198, -0.55207396, -0.31762072, 0.14071184, -0.51673746, -0.25489962, -0.07281028, -0.16856888, -0.4711487, 0.23881322, -0.14495607, 0.1464032, 0.26966017, 0.32353175, 0.322494, -0.009382467, -0.006518207, 0.23574881, -0.33927113, 0.06419794, 0.19478017, -0.03394931, 0.20004916, 0.17059349, -0.03159478, -0.42495847, 0.30439928, -0.025786975, 0.36649716, 0.30175212, 0.54276294, 0.16826876, -0.733205, 0.46430695, 0.23057105, 0.05312553, -0.10453733, 0.055684887, -0.044170607, -0.119323544, -0.5026885, 0.45410264, -0.12909222, 0.205758, 0.36804494, 0.047895633, -0.3062161, 0.23572227, 0.019443111, 0.072959594, 0.367753, -0.7215633, 0.26078874, -0.33169925, -0.020320091, 0.1826476, 0.54577935, 0.29484755, -0.0113463625, -0.16283347, 0.17521694, -0.08931981, 0.3768592, 0.10675155, -0.7009766, 0.54771507, -0.3760025, 0.2730429, -0.047750562, -0.08920271, -0.14514826, -0.099765144, -0.25489312, 0.0051739994, 0.17592925, 0.19356576, 0.09404298, -1.4079798, -0.40117347, -0.15504287, 0.24975444, -0.15536171, 0.15152033, 0.5381469, -1.0008023, 0.06940284, -0.18791157, 0.1061568, -0.3981094, 0.38369372, -0.12624885, 0.14502278, 0.39944565, 0.030890254, -0.21574803, -0.43755037, 0.15249108, -0.17355493, 0.23088741, -0.08805218, -1.2364417, -0.040034622, -0.22575237, 0.0013415623, 0.31925607, -0.49181026, -0.09709287, -0.32686728, 0.18377085, 0.32508588, 0.1346108, 0.3026936, 0.29307765, -0.32951576, -0.16518001, -0.59870785, -0.20859389, 0.07300827, -0.46502948, -0.2930009, -0.35146704, -0.49446273, 0.14069091, 0.04590489, 0.29431468, 0.41946858, 0.09675655, -0.19069715, 0.5033812, 0.28415108, 0.11053323, -0.050315484, 0.33736354, 0.14619678, -0.011910647, -0.2597362, 0.516891, 0.18008855, -0.13023023, 0.1504453, -0.71800154, 0.20822684, 0.11448306, -0.36806887, -0.17503843, -0.030338783, -0.12056368, -0.53528833, 0.14484438, -0.001470124, 0.027178284, 0.13636126, -0.1744797, 0.24725603, 0.12667179, -0.4272503, -0.95149523, -0.1890961, -0.14098111, 0.55705196, -0.9160527, 0.2143714, -0.22865607, 0.35506445, 0.2564073, 0.50226223, 0.50035316, 0.27146468, 0.2979316, -0.09513317, 0.39192423, 0.084278494, -0.047981698, -0.4075672, -0.095709346, -0.07376376, 0.42733222, 0.4029495, 0.2708893, 0.5131108, 0.16097946, 0.24507032, -0.30878747, 0.11901246, -0.20126133, 0.23893675, 0.46185872, 0.0792528, 0.2735303, 0.1774177, 0.26902094, 0.21095236, -0.47474837, 0.11506692, 0.27552035, 0.24228695, 0.3235579, 0.11477714, -0.11104967, 0.48436537, -0.34674472, 0.1347733, 0.0021073152, -0.8275756, -1.7709494, 0.14626944, 0.23159246, -1.330788, 0.46792203, 0.5045351, -0.11896367, 0.12713082, 0.4900973, 0.47831142, 0.08642331, -0.09104934, 0.46409827, -0.30669123, 0.24532104, 0.12548482

Layer Name: dense
Weight 2 - Shape: (64,)
-0.20985562, 0.49688187, 0.5980731, 0.52595276, 0.48910946, 0.36224774, 0.86149013, -0.19016172, 0.6824103, 0.10282121, -0.06049659, 0.62517107, 0.21093777, 0.33374587, 0.21871936, 0.12431674, -0.15713438, 0.4282775, -0.12038743, -0.9159177, -0.55167013, 0.592259, -0.9562117, 0.37858638, -0.07405391, 0.068794906, -0.6708554, -0.019939162, 0.10677841, -0.16597591, 0.28701591, 0.8431937, 0.09833376, 0.28790033, 0.077492975, 0.42139754, -0.30658317, -0.5062534, 0.57744116, -1.0634845, -0.7041783, -0.13033566, 0.0, 0.3560158, -0.3262445, 0.45245537, 0.7047967, 0.118951, -0.1673986, -0.5139529, 0.2474114, 1.0966979, -0.124756865, -0.83844686, 0.7083566, -0.10470563, 0.12175059, 0.16488361, -0.5519172, -0.10662528, 0.6001285, -0.3129003, 0.46833193, 0.3633738

Layer Name: dense_1
Weight 1 - Shape: (64, 32)
0.13788593, 0.48943982, -0.64364237, 0.2205673, -0.9883841, -0.5743633, 0.034075357, -0.00028641813, 0.17264293, 0.73004967, -0.6999509, -0.0068959063, 0.13280348, 0.16290052, -0.407854, 0.1744702, -0.21813852, -0.8174902, 0.38920376, -0.12015917, 0.21003126, 0.14295138, 0.19272384, 0.087992355, -0.18484305, -0.082254134, 0.17600393, 0.3369697, -0.49358517, 0.107579276, 0.23994829, -0.32934308, 0.41303164, -0.3787679, 0.78586334, 0.030621503, 0.26834223, 0.115560114, 0.9595739, 0.25906175, -0.20407479, 0.35485685, 0.22377491, -0.37393656, -0.03672147, -0.31254613, -0.17966442, -0.034431648, -0.9628796, 0.35298854, -0.24855047, -0.57575727, -0.2146554, 0.7418185, 0.037203003, 0.30688536, -0.11431926, 0.31184196, 0.09743233, -0.0019880165, -0.1843959, 0.055729643, 0.379273, -0.1699922, 0.029258246, 0.034933146, -0.52463186, 0.5077266, -0.28369895, 0.29691893, -0.5313552, 0.010787424, 0.50845134, 0.29266882, -0.169293, 0.3224426, 0.10362312, 0.57190526, -0.5935806, 0.113777995, 0.7812314, 0.11630157, 0.12913533, 0.8329586, 0.2624938, -0.68990624, -0.37416998, -0.1817814, -0.22270782, 0.7256964, 0.020355497, 0.26663795, -0.34687424, 0.1817311, -0.23744296, 0.3244527, 0.10142051, 0.2903819, 0.20242186, 0.2822738, 0.06519926, -0.028019415, 0.083763406, -0.37419128, -0.09856117, -0.19615349, 0.5154635, -0.13150279, 0.28932685, 0.30387944, 0.1871042, 0.40007508, 0.30624437, 0.11372199, 0.13738483, -0.05695741, -0.38617808, 0.1970688, 0.18250611, 0.32211185, -0.22730768, -0.19252409, 0.53314286, 0.6008641, -0.025699617, -0.05048189, 0.24632542, 0.71789694, -0.14245637, -0.76511234, 0.47061607, 0.24126293, 0.62888956, 0.43540594, 0.4966898, -0.007840999, -0.17065306, -0.67664444, 0.2861351, -0.3710733, -0.08845008, 0.074916944, -0.10061258, 0.10525567, -1.1848941, 0.6657531, -0.31694925, -0.57158667, 0.4064099, 0.4812689, 0.5559483, -0.13428824, 0.09786159, -0.73780113, -0.5722168, -0.3349598, 0.37652445, 0.059121303, -1.896221, 0.017992698, -0.6693772, -0.08780206, -0.08278418, 0.09847417, 0.31719574, -0.031041864, -0.6779766, -0.0051510227, 0.19866088, -0.74179655, 0.06270844, -0.4480863, -0.3293339, -0.48894304, -0.3195296, -0.0005518517, 0.11485175, 0.09762405, -0.35606378, 0.19816844, 0.04212048, 0.15234768, 0.4864768, -0.21078874, -0.13200915, -2.8975477, 0.07464192, -0.6380882, -0.42072228, 0.24506076, -0.293026, -0.06137529, 0.3709722, -0.03462358, -0.29229906, 0.07197449, -0.20027845, -0.04630982, -0.88540286, 0.1457603, 0.26449752, 0.34671432, 0.38459593, 0.09261053, 0.19942069, -0.07916946, 0.11157882, 0.047339264, -0.3377223, -0.40153453, -0.33668253, -0.0009331545, -0.36314064, -0.1395976, -0.15046488, -0.5706757, -0.17158315, -0.90841943, 0.17937538, -0.01951376, -1.2847437, -0.32587665, 0.32829124, -0.4370366, -0.01203425, 0.057458457, 0.19186814, -0.14261802, -0.14836591, -0.24567345, 0.12411475, -0.049796797, 0.32510695, -0.19370301, 0.21206054, -0.20563227, 0.3615769, -0.12282522, 0.10026518, 0.20813453, 0.041245982, -0.35411415, 0.302559, -0.029031511, -0.41326246, -0.11311562, 0.62100166, -0.043368634, -0.10772845, 0.26991856, -0.22345889, -0.16860412, -0.17794405, -0.04699818, 0.23443565, 0.42084894, -0.6588676, 1.0232726, 0.10969123, -0.3297701, -0.38634902, -0.17782384, 0.4927841, -0.3300966, -1.3146714, 0.56206155, -1.366655, -0.6646928, 0.10002414, -0.8734424, 0.4774593, -0.05966772, 0.8680148, 0.8284593, -0.5697414, -0.27205843, -0.0012648173, -0.943906, -0.37637386, 0.32373384, 0.19481227, 0.39076602, 1.0483987, 0.7616615, 0.43778908, -0.9726149, 0.12500116, -0.34214434, -0.73080516, 0.66040576, 0.10110171, -0.1417594, -0.14989427, 0.3241842, 0.4749908, 0.35675722, -0.10748796, 0.43157193, -0.32479623, -0.25257304, 0.14999205, -0.54081523, 0.09362251, -0.20171724, -0.15421067, -0.015227982, 0.19350481, -0.45979974, -0.6343542, 0.2706258, 0.07960339, -0.17932755, -0.22660226, -0.010741591, 0.069107875, 0.18252459, -0.042891975, 0.29879805, 0.38002288, 0.43821436, 1.0133352, -0.25327757, -0.52641565, -0.34832528, -1.1855097, -0.0027317395, 0.5862179, -0.77306414, 0.11631441, 0.41798747, 0.16976671, -0.4675193, 0.05272765, 0.16772205, 0.027746584, -0.3624301, -0.73771423, 0.7319955, 0.5468767, 0.9758454, 0.24169093, 0.11569149, -0.81245404, 0.43481538, -0.20037709, 0.10057142, 0.5104595, -0.34920543, -0.13903677, -0.38864103, -0.59336126, 0.42987368, 0.7924588, 0.44244003, -0.19069287, 0.63852066, -0.52196866, -0.29512984, -1.6215862, -0.31482887, -1.0367732, 0.61942977, 0.22767398, 0.5896545, -0.29151705, -0.5671368, -0.3698571, 0.21281299, 0.064393744, 0.1802521, 0.1161263, -0.12489528, 0.29237637, -0.5370116, -0.32539743, -0.3489681, -0.0058027394, -1.0594397, 0.3336994, 0.61478996, 0.7197852, 0.8982768, 0.38634637, 0.30813232, 0.24659689, 0.557927, 0.4641692, 0.49406248, 0.28902087, 0.055703245, -0.114821315, 0.09109837, -0.37713397, 0.14106938, -0.058276623, 0.060776446, 0.3264485, 0.9020069, 0.29390556, 0.11724322, -0.13229893, -0.12927426, -0.09474906, 0.21233937, 0.28564665, 0.108892485, 0.13552505, -0.11987091, 0.12741059, -0.15270205, -0.05920701, 0.03584065, 0.2330028, 0.3608649, -0.01858973, -0.21512343, -0.27280375, -0.34197202, 0.4838615, -0.39203486, -0.09090054, 0.08991958, 0.46521696, -0.37283498, 0.28390306, -0.4598223, -0.03736541, 0.011694017, -1.0936483, -0.20705774, -0.76531976, 0.145626, -0.019935878, 0.81336516, 0.051364977, 0.029080808, -0.29508376, 0.002148983, 0.2010181, -0.19045892, -0.11118431, 0.31034246, -1.0083779, -0.44099805, 0.40132317, 0.19225974, 0.31500396, -0.6051596, 0.051595345, 0.5328668, 0.42765447, -0.8120715, 0.24928564, 0.009093198, -0.7257696, -0.6306883, 0.78281635, 0.6011098, -0.11949498, -0.41659904, 0.84747624, 0.3527674, 1.5125858, -0.5852598, -1.4272554, 0.5704204, -0.30751243, -0.20136988, 0.78831697, -0.38964257, 0.93473524, 0.42028645, -0.16740227, -0.030792207, 0.48246798, 0.37693986, 0.43452886, 0.17286944, 0.084056266, 1.0071298, -0.3837573, -0.23888348, 0.008548784, 0.071499534, 0.43487194, 1.174525, 0.3141559, 0.29427308, 0.47056144, 0.13483757, -0.31697413, -0.28717545, 0.69384813, -0.10456417, -0.30350208, -0.51079136, -0.38362455, -0.2533512, -0.6970459, -0.19689128, 0.24996428, 0.22110052, 0.22160344, 0.40955597, 0.12305459, -0.3382731, -0.26044625, -0.537576, -0.020155737, -0.34002885, -0.2170112, -0.758869, 0.06842026, -0.043098003, 0.08027476, -0.030823067, 0.21736133, 0.04205581, -0.4452567, 0.19209294, 0.19818899, 0.26533005, 0.07242745, -0.35185346, 0.25123686, -0.20649894, -0.08334977, 0.30703458, 0.30801296, -0.3904467, 0.34466067, 0.23578459, -0.39683682, -0.033496972, -0.05341561, 0.23185495, 0.13955128, 1.1474348, 0.0070618405, 0.18132138, 0.18420754, -0.14089596, -0.22402391, -0.044673666, 0.70940876, -0.109576486, -0.29098323, -0.8967936, -0.21496688, -0.4156166, 0.30191702, 0.07831115, 0.012344376, 0.026709246, -0.2635794, -0.19461112, -0.76726437, -0.13443448, -0.015541034, 0.13108204, -0.32002994, 0.089002095, 0.12404664, 0.30360696, 0.114873014, -1.0982467, -0.07379644, -0.41332543, -0.32185164, -0.28074142, 0.007663209, 0.357832, 0.6970192, 0.9875869, 0.16209316, -0.008386226, -0.46533808, 1.5338705, -1.343139, -0.29267976, -0.5443511, -1.3233114, 0.5968815, -1.3428501, -0.6110414, 0.20431139, 0.77085704, -0.8739147, -0.7019783, 0.25235695, -0.42889822, 0.719088, 0.25192863, 0.25021842, -0.71953356, -0.0056457124, 0.30823588, -1.6254294, 0.110114135, 0.17039628, 0.17700845, -1.7299353, 0.7368014, 0.5900854, -0.8525924, -1.1911299, -0.109700575, -0.55391335, -0.10963568, 1.0749899, 0.63376606, -0.02891808, 1.2072979, -1.2534555, 0.015949018, -0.5863433, 0.71049976, -1.3933228, -0.43415964, 0.8643067, 0.5398367, 0.67272717, 0.4026261, -0.28566068, 0.47317025, 1.5782745, 0.8015696, -0.495485, -1.8604041, -0.39500356, 0.40173978, 0.3653594, -0.08591415, 0.08656329, 0.045948837, 0.6806172, 0.9991178, -0.9555312, -0.3520149, -2.1645863, -0.90743876, -0.44060266, 0.11703534, -0.42081583, 0.33257878, 0.3572968, 0.22372822, -0.050431725, -0.10279415, -0.35276762, -0.16355316, 0.71861315, 0.0050739604, -0.12853606, -0.19395864, 0.3576326, -0.16225964, 0.17191443, -0.010435049, -0.20290561, 0.34432897, 0.13448685, 0.22356646, 0.17695473, 0.009343881, -0.25347576, 0.003560911, -0.035275675, -0.514714, -0.050159026, 0.22580321, -0.4335649, 0.009541145, 0.70370734, -0.7799819, -1.1272714, -0.2379832, -0.081849456, 1.8586303, -0.9187883, -1.0042336, -0.29766607, 0.193497, 0.58380246, -1.4051808, -0.73728216, -0.014415691, -1.042018, -0.66260046, 0.144865, 0.4050995, -0.61498946, -0.6258554, 0.27398562, 0.10371131, -0.47352487, -0.023153365, 0.19067246, 0.31297612, 0.70218873, 0.85378957, 0.57757354, -0.031918664, 0.90396434, 0.67363125, 0.32569268, -0.026393875, 0.67935544, -0.1444439, -0.5190932, 0.55906487, -1.73583, 0.09983992, -0.34756884, 0.31864703, -0.2602745, -0.3263803, 0.090929106, -0.34217924, 0.9640794, -0.66323555, -1.0255637, 0.4254842, -0.20225522, -0.10074982, 0.19564325, 0.12671232, 0.6390611, -0.23190452, 0.52509403, 0.19248822, 0.3798871, -0.04957233, 0.09015762, -0.25451458, 0.42975625, -0.08573545, -1.9081248, 0.363774, -0.8121781, -3.0702264, 1.5199811, -0.5929695, -2.2089326, 1.0066698, 1.4680414, 0.9126008, 0.5271729, 0.32212666, -0.8620927, -0.6735049, 0.99315786, -1.0924085, -1.0721755, 0.32541263, -1.5855743, 0.53833944, 1.08373, -0.3675468, 0.19683588, 0.0134314895, -1.621931, -0.44908738, -0.33567536, 0.57511544, -0.15907262, 0.8991097, 0.47710842, -0.023237806, 0.1682121, 0.16003124, 0.13919337, -0.119454876, -0.44035655, 0.43908277, -0.24121775, -0.13358298, 0.3413076, 0.059318956, 0.1464623, 0.047533423, 0.114888005, 0.394664, -0.093611024, -0.0028680079, -0.57213575, -0.07089803, 0.06713953, 0.3534572, 0.021838894, 0.24341768, -0.23169336, -0.30964357, -1.1271292, 0.3790402, 0.34952733, 0.059258707, 0.48638153, 0.37981343, 0.23191096, -0.20622936, -2.2141569, 0.53166145, -0.33627194, -0.34200925, 0.04534909, 0.035578508, -1.0197395, -0.41450325, 0.7836552, -0.051122874, 0.57775784, -0.57450473, 0.12961562, 0.1752558, -0.29084426, -0.0047040894, 0.16158089, -0.5759282, -0.24820195, -0.116692044, 0.5068799, -0.07940528, 0.21531087, -0.16793106, -0.4646873, -0.13072512, 0.04121961, 0.44576907, 0.11171686, 0.3764336, 0.047035467, -0.994568, 0.7079268, 0.0024381834, -0.25549725, -0.18327107, -1.722817, 0.36423635, -1.6751125, -0.6742735, -0.011631797, 0.2683718, 0.029329361, -0.57007635, -0.66451406, 0.15328932, -0.29827675, -0.1787372, 0.3956128, -0.7544354, -0.44557992, 0.13903053, -0.19822964, 0.4693004, -0.3279939, 0.0018415493, -0.32822642, -0.35929844, -0.4158872, -0.0837203, -1.3469958, -0.3856029, -0.16193277, -0.13729417, 0.019614711, 0.3164188, -0.05394911, 0.27402797, -0.2135768, 0.11644881, 0.2644898, 0.2552725, 0.59124863, -0.16665919, 0.19447419, 0.18578947, -0.016855273, 0.31478062, -0.11817334, 0.08462798, -0.3199821, 0.15110393, -0.080618724, 0.32669196, 0.017892644, 0.21898726, 0.08935793, -0.018261706, -0.3170918, 0.0007659824, 0.12032218, 0.15714219, 0.4249945, -0.096838824, -0.021234488, 0.15714654, -0.44125116, 0.16548453, 0.20734195, 0.35689226, 1.0829891, 0.08882267, -0.25778443, 0.18118137, 0.5975579, 0.27672595, -0.20961381, 0.2787733, -0.062409226, 0.546917, 0.063496694, 0.52426153, 0.15081804, -0.11515627, 0.30133954, -0.2297061, 0.10577067, 0.18887304, 0.032215677, -0.23622896, -1.4096842, 0.22519901, 0.29481637, 0.1888966, -0.22504446, 0.049583744, -0.04833754, -0.42743886, -0.2298638, 0.03918891, -0.11647225, 0.16415705, -0.60041374, 0.11808112, -0.052337766, -0.43793714, 0.11150219, 0.43413097, 0.12094376, -0.2684177, 0.24242765, -0.37088624, 0.18282785, 0.13655375, -0.66459924, 0.31657493, 0.2215526, 0.34726492, -0.0071555087, 0.14784962, -0.0954384, -0.16912068, 0.17310417, -0.107694566, -0.15944584, -0.23375338, -0.048298508, 0.59215915, 0.19492954, 0.078336686, 0.03443579, 0.068354845, 0.20122002, -0.12540075, -0.03162669, -0.092794396, 0.25490007, 0.011895919, 0.2205068, 0.3139829, 0.23010775, 0.31602836, -0.3371004, -0.19317682, 0.30616322, -0.06008041, 0.0383424, 0.013639102, 0.12632717, -0.34888712, -0.23136494, 0.22496942, 0.020777162, -0.2547581, -2.4579334, -0.02331504, 0.10127394, 0.31984138, 0.1010311, -0.024131082, 0.31143516, 0.36648345, 0.24912387, 0.40693575, -0.23932436, 0.3376193, 0.13391063, 0.20290592, 0.4577327, -0.18527673, 0.17437097, -0.13414368, 0.07368822, 0.027253939, 0.18967782, 0.27151483, -0.118797824, 0.15135777, 0.053176217, -0.028836286, -0.34802333, 0.50675535, 0.10102367, 0.45568955, -0.4771297, 0.1545463, 0.17913648, -0.3695801, 0.3174551, -0.013488167, 0.11255263, 0.5428929, -0.31212834, 0.12529935, 0.1357999, -0.23379418, 0.047108177, 0.27551752, 0.060379103, -0.50345165, 0.36786905, 0.334868, 0.14025643, 0.0456284, 0.23124906, -0.18220675, -0.04556209, 0.06327278, -0.23385197, 0.3933786, -0.02898093, 0.19996732, 0.26210174, 0.33323765, -0.28589, -0.11567394, -0.26789272, 0.16781034, 0.057459854, -0.13770993, 0.008283665, 0.24033299, -0.03481081, -0.15228802, 0.040701218, -1.1242692, -0.03743362, 0.09591686, 0.21908925, 0.11300469, 0.28807595, 0.48032367, 0.049601067, -0.018990329, 0.15550463, 0.2663292, 0.63687027, 0.11567281, 0.37673965, 0.12247582, 0.14789222, -0.024071613, 0.3722432, 0.18505763, 0.06842411, -0.347477, -0.03416898, -0.11260656, 0.31842944, -0.19329885, -0.48853296, 0.104570985, 0.4355166, -0.4269139, 0.46475962, 0.24674106, -0.027373469, -0.1590008, 0.49281877, 0.38319594, -0.034845736, 0.3378869, 0.21171747, -0.16320525, 0.17683384, 0.35076576, -0.1170801, 0.14063792, 0.026101384, 0.2889774, -0.39617276, -0.31053674, -0.2858351, -0.2014345, 0.47374648, 0.23347555, -0.0845836, -0.22263192, -0.23120296, 0.27641058, -0.31222552, -0.06513062, -1.0709646, -0.08001713, 0.11697089, 0.2712866, 0.342412, 0.0882578, -0.094438486, -0.26852795, -0.19913338, 0.15583724, -0.6378239, 0.70710504, 0.2797949, -0.67361027, 0.019452175, -1.4316473, 0.7334283, 0.26117125, 0.1965366, -0.2968223, -0.33537018, 0.98458016, -0.57633305, -0.27624488, 0.264018, -0.75308585, 0.0018894405, -0.07001849, 0.58403945, 0.48054203, 0.7697321, -0.014569881, 1.3196561, 0.5142735, 0.39552838, 0.13664319, -0.08662048, -0.37287748, 0.061465707, -0.5653364, 0.21844807, 0.29410565, -0.93741477, 0.054847624, 0.13650785, -0.33476728, -0.08980058, 0.25230095, 0.22620553, 0.008925676, 0.07638272, 0.2906651, -0.59030855, 0.3963953, 0.051836368, -0.2768078, 1.0904831, -0.2636557, -0.2374174, -0.21580037, -0.61203426, -0.19705841, 0.0058096997, -0.0317672, 0.2082085, -0.52232116, -0.5050778, 0.07690575, 0.037239328, -1.0235739, 0.06682041, -0.5447243, 0.43233284, 0.13377193, -0.50588685, 0.099395715, 0.04189496, 0.33103427, 0.32170832, 0.15919295, 0.18384461, 0.14575, 0.04392788, -0.3273847, 0.25896, 0.36914426, 0.15355842, -0.117366634, 0.37431675, 0.14822671, -0.1649271, 0.6054235, 0.051678978, 0.3345791, 0.3225015, 0.018933246, -3.7366467, -0.3139535, 0.17852378, 0.0048366617, 0.1844527, 0.47588384, -0.9406327, -0.655625, -0.58992875, -0.83480465, -0.6846517, -0.2700472, -0.079479024, -1.4288781, -0.02779616, -0.5658534, -0.56508845, 0.42314994, 0.27408618, 0.32263777, -0.54695773, -0.16616137, 0.10606407, -1.4234604, 0.090988904, -0.1426677, 0.18737258, -0.21367177, 0.08606795, 0.5475476, 1.1719662, -0.019053526, -0.21973695, 0.024166457, 0.33939233, -0.3088979, 0.36689025, 0.40306434, 0.5035143, -1.0824165, -0.061729405, -0.016757442, -1.4575565, -0.030902503, -0.14937095, 0.1953775, 0.2372553, -0.40764973, 0.04083052, -0.31518808, 0.12188634, 0.18539344, -1.4296474, 0.030905236, -0.2724957, 0.046751093, -1.0120215, -0.5216762, -0.020219225, 0.0049230307, 0.10178302, -0.2015678, 0.15623349, -0.12764816, -0.3602418, 0.59309083, 0.17114897, -0.6205938, -0.081479475, -0.82833856, 0.1692695, -4.2474756, 0.035528462, -0.25173107, -0.8881369, 0.075887516, -0.08254971, -0.2587505, -0.13806261, -0.51169866, -0.18055634, 0.3126384, 0.48138973, -0.07383248, -1.2935891, 0.10070795, 0.52449685, 0.60043705, -0.21851541, 0.036115292, 0.0150746, 0.08429155, 0.14159225, 0.2754536, 0.4387458, 0.22797954, -0.3044628, 0.3096973, 0.8232061, -0.041990213, -0.2515608, -0.13793194, -0.55972546, 0.35534108, -0.63502616, 0.07943412, -0.45916182, 0.025619105, -0.01172584, -0.44833186, -0.19710319, -0.50600517, 0.18116815, 0.6003904, 0.70604324, -0.20668484, -0.05956961, 0.3378654, -0.09064008, 0.10201376, 0.020173077, -0.4312484, 0.39121702, 0.1352222, 0.36600867, -0.579536, -0.33312437, -0.221731, -0.24619347, 0.11597962, -0.09748165, 0.4216526, 0.26605347, -0.34654015, -0.27313986, -0.0792225, 0.19742846, 0.2434349, 0.00022441149, 0.2374025, -0.16127598, 0.19392413, -0.22505313, -0.2223292, 0.11990219, -0.05811721, 0.14254671, 0.088507, -0.20313132, 0.21037757, -0.13951576, -0.04409522, -0.06860304, -0.1483227, 0.18144464, -0.0017609596, -0.13525051, 0.045588255, -0.24837929, -0.106052995, -0.027694404, -0.24176699, -0.023444593, 0.121953666, 0.23862672, 0.16120857, -0.042049408, 0.30165476, 0.46245617, 1.0767395, -0.18726125, 0.31321388, -0.042088345, 2.57034, 0.007077398, 1.1784942, -0.23425765, 0.4396721, 0.6801623, 0.58201206, 0.94330984, 0.83305556, -0.2501827, -1.084466, 0.0084067825, -1.0956056, -0.6923207, -0.69534504, 0.4473584, 0.79457295, 1.0293292, 0.07275404, -0.52843636, 0.8722832, -0.06606232, -0.5395906, -0.84193754, 0.26902983, -0.28416604, -0.40192148, -1.0255283, -0.17957726, -0.56670284, 0.04205683, -0.16777617, 0.4939239, -0.6984851, 0.14887922, -0.09654782, 0.63063014, 0.6084847, -0.79614806, 0.20372167, 0.41509524, -0.89671105, -0.013755468, -1.3621343, -0.39201766, 0.599101, 0.29197162, -0.1777011, -0.19036455, -0.105835214, 0.100635804, -0.0022191089, 0.23726515, -0.5392416, -0.47653043, 0.28513837, -0.10595824, -0.25680602, -0.6282815, -0.46771508, -0.20146294, 0.015063924, 0.23452644, 0.46914682, -1.5424321, -0.35952702, -0.30745065, 0.5324376, 0.36110818, 0.4737132, -0.24670526, 0.004230805, 0.11943888, 0.15993957, -0.32359198, 0.2655466, 0.44146672, 0.29524824, -0.4599679, -0.12759793, -0.33787945, 0.13298221, 0.19243748, 0.43708554, 0.084656, -0.16103, -0.7325709, 0.18122622, 0.16025221, 0.3032885, -0.058132112, 0.18196778, -0.09318244, 0.37443146, -0.19816792, -0.088836245, -0.50950265, 0.120744236, 0.37331206, -0.105303004, 0.1905506, 0.31752902, -0.40479922, 0.3906559, 0.061552964, 0.34573513, 0.1113256, -0.26608792, 0.28035286, 0.2916125, 0.30636385, -0.13243303, -0.4481101, 0.16982152, -0.31016636, 0.0977397, 0.13008906, 0.17016216, -0.36213955, -0.06344232, 0.16240926, 0.50111336, -0.95884854, -1.068727, 0.30284765, -0.29385206, -0.3912787, 0.47839785, 0.7215192, 0.83558905, -0.36020246, -0.2234949, 1.1175836, 1.1625639, -1.0249971, 0.4961389, -0.17785215, 0.446849, -0.95708096, 1.0348084, -0.39188826, -0.26734185, 0.7346395, 0.66367984, 0.1067934, 0.4841091, -0.09278071, -1.3126683, 0.7685055, -0.6328634, 1.0933981, -0.70386213, 0.5303875, -0.029519357, 0.17715813, 0.3728241, -0.48693988, 0.5090211, -0.12326224, -0.68795466, -0.51351416, -2.820154, 0.7746137, -0.084234975, 0.65700924, 0.24540305, -1.0767825, -0.6984416, 0.1564167, -0.24308632, -0.09184839, 0.39561334, 0.013109387, 0.48776346, 0.086060576, -0.071383394, 0.13480356, 0.21136524, -0.106072605, 0.3172279, -0.28025964, -0.9442013, -0.31139973, -0.25108302, -0.5307669, 0.058378987, -0.40266684, -0.65110505, 0.009498024, -1.8555338, -0.47864872, 0.12855354, 1.188449, 1.1557044, 0.5741249, 1.5202212, 0.41072533, 0.07363669, -0.25272632, -0.8312661, -0.8879031, 0.6643518, 1.1639988, -0.87318105, -0.7180577, 0.3033836, 0.17383444, 0.19555631, -0.36702397, 0.04118849, 0.15868077, -0.87802213, 0.14060794, 0.2549572, -0.20364937, -1.5126424, -2.0928288, 0.3165443, -0.05668883, -0.57469606, -0.6151876, 1.0272701, 0.32295692, -0.14956889, 0.07791594, -0.055788796, 0.3991863, -0.10384796, -0.38228983, -0.06551118, 0.30030075, 0.11059104, 0.54963416, -0.41375625, -0.5934963, 0.31069675, 0.4835385, -0.4717681, -0.86789334, 0.9686829, 0.5584431, -0.015516394, 0.16437761, 1.7193713, 0.8376998, 0.8918509, -2.1222222e-05, -0.60468507, -0.38765144, -0.06671297, -0.6957746, 0.35708165, 0.59999007, 0.28028905, 0.44216907, -0.23120609, 0.56336254, -0.025753917, -0.033570424, 0.78158575, 0.008627723, 1.2794763, -2.404627, -0.16913931, -0.71664435, 0.6739058, -0.28584373, 0.49952132, 0.6239576, -0.3154955, 1.4698976, 0.4869047, -1.196983, 0.1415734, 0.016889848, 0.3075092, -0.69452673, 1.274148, 0.84424543, -0.6706397, 0.93228483, -0.04045514, -0.3150393, -0.172939, -0.12897834, 0.2994487, 0.1302346, 0.11645772, 0.375927, 0.23148875, 0.26186687, 0.3130873, 0.26782137, -0.08146822, 0.07434289, -0.01588182, 0.1775078, 0.2538199, 0.31096813, -0.3157883, 0.17817932, -0.021916628, 0.0065567587, 0.26294404, 0.3903102, 0.11180934, 0.14967117, -0.577792, -0.2267982, -0.15322015, -0.21433374, -0.14418586, -0.11878215, -0.1585301, -1.9521879, -0.02027965, 0.11123983, -1.4459738, 0.0497867, -0.02609309, -0.02522474, 1.0516013, -0.43394753, -0.25476214, -0.62094957, -0.9074552, 3.3475313e-05, -0.651287, -0.028855966, 0.068079695, 0.010400163, -0.3181664, -0.15752052, -0.4189692, -0.0013757461, -0.7644055, 0.5945409, -0.258173, -0.03341593, 0.6957577, 0.23080818, 0.045558747, -0.13700679, -0.8666096, -1.2222925, 0.18172424, -0.42437693, -0.43853012, 1.2172737, 0.27163374, 0.83025604, -0.92940927, -3.220855, 0.21644822, 0.37073943, 0.105069324, -0.3039455, 1.224658, 1.1814291, 0.67751694, 0.3940433, -0.35231227, -0.8205192, 0.11138324, -0.74174786, -0.48904228, 0.8657332, -1.1978223, 0.1691303, -1.5638963, 0.08887247, -1.3230897, -0.48318255, -0.084074855, -1.8515056, -0.7657466, -1.0520431, -0.84607095, 0.6828555, 0.08546578, -1.3146168, 0.2793226, -1.727709, -3.3131752, -0.092398316, -0.5142156, 0.5004009, -0.495806, -0.7005512, 0.34659314, -1.0323939, 0.25841588, -1.1478508, 1.7401638, -0.20695627, 0.3090065, -0.504406, 0.6181808, -0.49398798, -0.61258763, -0.63261396, 0.7439184, 0.038719065, 0.4817352, 1.1390644, 0.83891594, 0.25508136, 0.96685404, 0.20579737, 0.54629076, 0.13166969, -1.1885201, 0.48513353, -0.5999271, -0.15271449, 0.53341925, -0.6083953, -0.37496266, 0.7489734, -0.21541546, -0.027426813, 0.25318202, 0.21543391, 0.24494724, 0.32191563, -0.30825648, -0.7121474, 0.6420692, -0.044294853, 0.12403006, 0.36002216, 0.26386434, -0.0025782743, -0.6867734, -0.21980147, -2.2465868, 0.37253687, -0.050430033, 0.25564834, -0.38923588, -0.91000944, -0.0034326853, 0.9164502, -0.37572163, 0.15218742, 0.21977961, -0.11758734, 0.07519307, 0.5207458, -0.07857127, -0.011580164, 0.035950784, 0.046325695, 0.06363457, 0.21510488, 0.91317725, -0.20437871, -0.011308082, -1.4463494, 0.23785172, 0.08360428, -0.037803344, -2.4643567, -0.1374221, -0.5237705, 0.80949336, 0.131175, 0.05528942, 0.06344653, -0.17090483, 0.25349602, -0.2943518, 0.6101772, 0.0067641456, 0.16675454, -1.0191659, 0.16456991, -0.32292813, -0.25029188, 0.4032984, -0.026946666, -0.9091997, -0.31788692, 0.25888166, 0.10054615, -0.24961029, -0.9081598, -0.7906351, 0.031171616, -0.16178596, -0.028162839, -1.2665085, 0.27038157, 0.07353642, -0.43942875, 0.11540928, 0.11350768, -0.2526967, -0.048334215, 0.118050605, -0.5471787, -0.5490762, -0.56541467, -0.17509742, 0.5399004, 0.1411456, 0.07013948, -0.03445417, -0.073477164, 0.061749414, -0.19008283, 0.0013983425, 0.013662515, 0.047463253, 0.09813405, 0.21544828, -0.076364234, -0.3052586, 0.23825866, 0.019206462, 0.06703963, 0.06764513, -0.032666706, -0.6806524, 0.18323535, 0.11982554, -0.11139181, -0.067644, 0.02391178, 0.05985528, -0.25434262, 0.0065502985, 0.045912955, -0.2722152, -0.1266079, 0.24613407, 0.14403574, 0.13670617, 0.8581057, 0.117324956, 0.52201116, 0.470329, 0.058975447, 0.055767078, 0.004238376, 0.4975367, 0.5385479, -0.32670325, 0.7809621, 0.37447146, -0.028586514, 0.28576192, 0.42313015, 0.5722927, 0.559308, 0.20735282, 0.60182786, 0.079385445, 0.23456936, 0.5145211, -0.45034435, 0.2873481, -0.06496518, 0.43473583, 0.0742237, -0.07833527, 0.084339365, -0.0039586634, -0.13321453, 0.20813935, -0.2687999, -0.35018814, 0.26669854, 0.09208858, 0.39334145, -0.22124223, -0.1808561, -0.11728127, 0.35974976, -0.38019568, -0.121182814, -0.5176328, 0.35956383, -0.13330868, 0.6191909, -0.7115773, -0.29187283, -0.6006462, -0.4658572, -0.15366413, -0.10458986, 0.6293201, 0.56297356, 0.6721714, -0.13830021, -0.1660687, 0.54951966, -0.4349342, 1.1575394, -0.23080027, -0.093828656, -1.4419444, 0.3125966, -0.017709414, 0.082541354, 0.79223305, -0.15652534, -0.078594536, -0.18538213, 0.053511918, 0.3626026, -0.040146217, 0.43458626, 0.35453737, 0.11694659, 0.11721275, 0.6537415, 0.037917387, 0.6780021, 0.13601987, 0.0239647, 0.124812745, -0.17500187, -0.4119343, -0.4392335, -0.093056016, -0.06559643, -0.7212892, 0.041901223, 0.10930332, 0.29395252, 0.41450983, -0.11529652, -0.096270375, 0.05218609, -0.06747844, 0.23332682, 0.25876898, 0.09685108, -1.2167318, 0.35601416, -0.49816754, -0.040693, 0.5112681, 0.4375615, 0.33535847, 0.39135826, 0.259881, -0.05509332, -0.026560226, 0.097285785, 0.0021169926, -0.047471065, 0.31377217, 0.08976011, -0.33062163, -0.121274054, 0.26078585, -0.25845072, -0.16762167, -0.14022201, 0.14609334, -0.11575799, 0.30412307, -0.18904778, 0.19291653

Layer Name: dense_1
Weight 2 - Shape: (32,)
0.15798354, 0.17239766, 0.28560215, 0.28524968, 0.21562201, 0.08406811, -0.18808296, 0.3572997, 0.11304557, 0.16253573, 0.23309433, -0.023389759, 0.31654426, 0.52921957, 0.123099655, 0.06847247, 0.23048119, 0.014177991, 0.07622042, 0.11518004, 0.1353294, 0.1600409, -0.16200775, 0.0019312581, -0.050473303, -0.01659647, -0.20879196, 0.21367447, 0.083899036, 0.2346093, 0.28206965, 0.18354727

Layer Name: dense_2
Weight 1 - Shape: (32, 12)
1.846341, -1.4617543, -0.972051, -1.4026626, 0.8500472, -0.5378364, -0.48665017, 0.867717, 1.1887691, 1.1122032, 0.15468697, -0.17125763, -0.5609507, 0.23946904, -0.3268332, 1.2370493, -0.72021997, 0.42347464, 0.6530634, 0.6840872, 1.7886988, 0.016192893, 0.60163224, 0.043184564, 0.31107375, 0.27200288, 0.05580414, 0.24697845, 0.0036790846, -0.8397986, 0.37833828, 0.26239717, 0.29552415, 0.11685766, 0.39250317, 0.27684578, 0.0078747915, -0.2954168, 0.08527102, 1.0009258, -0.15829946, 0.43795195, 1.1181483, 1.0342132, 0.4090119, -0.36713538, 1.046247, 0.7889138, 0.8467853, -0.2012475, 0.7230596, 0.54013735, 0.11600615, 0.45442456, 0.5821841, 0.2143871, -0.04010447, -0.28116223, 0.39072737, 0.08939905, 0.56727993, -0.6980159, 0.1956926, 0.0861897, -0.2926455, -1.0113136, -0.22179393, 0.5391358, -0.38698417, 0.052460156, -4.479771, -1.2735066, -0.78288156, 0.08176937, 0.2560366, 1.2758354, -1.2497206, -0.5478446, 0.660535, -1.9914663, 0.6917032, 0.17168835, -0.6485238, 0.5230995, 0.61237603, -0.2467666, -0.08234876, -0.019581655, 0.14637707, 0.32387257, 0.7435651, -0.30333152, -0.09633285, -0.109534554, -2.4661446, -1.0546193, 0.8803979, -0.62480664, 0.4741042, 0.14863697, 0.062501445, 0.43936595, -0.12939022, 0.50060946, -2.050164, -0.31728047, 1.104667, -1.2269887, -0.008564798, 0.36655718, 0.637721, 0.40639794, -0.21707642, -0.9506504, -0.29661378, -0.5162557, -0.104947045, 0.13217828, -0.59183204, 0.2209143, 0.057387117, 0.13108158, -0.10098546, 0.07228727, 0.79820055, -0.14946793, 0.29719877, -0.40459168, -0.43705156, 0.542751, 0.12272167, 0.3616115, 0.12856542, 0.5196447, 0.0985701, 0.17277473, 0.21383044, -0.30718237, -0.20217972, 0.34995303, -0.63742244, 0.7627001, 0.40108135, 0.001122809, 0.55868405, -0.122040175, 0.8405456, 0.20548187, -0.4871669, 0.6455015, 0.53768253, 0.4088416, 0.73193675, -0.9882309, -0.82952607, -0.03455668, -1.1237514, 1.5167323, -0.42716593, 0.9213108, 0.15043025, 0.5347608, 0.48673967, 0.10034051, -1.8931974, -0.6753672, -0.05765052, -0.27699625, -0.41612202, 0.40470907, 0.26646948, 0.6663478, 0.15212063, -0.3304277, 0.357084, -0.3725664, 0.20053522, -0.35903907, 0.63507867, -0.47292924, -0.41460356, 0.5879812, -0.67653656, 0.054899603, 0.5038665, -0.5032558, -0.31518176, 0.5148671, -1.1061406, 0.60623026, -0.9538591, 0.24316305, 0.97064763, -0.5388662, -0.7265856, -0.034919616, 0.032062296, -0.19969916, -1.1738367, -0.70257807, -1.8535718, 0.7922902, 0.70344716, 0.1235392, 0.94546044, -0.56145525, -0.13407072, 0.30168048, -1.2545314, 0.09347206, 0.58213633, 0.04399962, -0.48873883, -0.42178082, 1.2839558, 0.3564146, 0.30657235, -0.026904175, -0.41602504, 0.28169507, 0.30905646, 0.5506739, -0.736413, 0.07247941, -0.5297387, 0.59653306, -0.27675065, -1.5352141, -0.024555583, 0.34559652, 0.3195667, -0.59953904, 0.37053657, -0.1499503, -0.38394204, -0.65884733, -0.7930108, -0.23454814, -0.31880698, -0.7393265, 0.30402762, -0.4222959, -0.87767756, 0.066971526, -0.5758401, -0.21242331, -0.6352589, -0.7957713, 0.37700415, 1.1388649, 0.46816444, 0.060263272, -0.13248898, 0.7636061, -0.023671972, -0.9753731, 1.4304479, 2.0441606, 0.041463953, -0.62791723, 0.37879092, 0.012937487, 0.2425778, 0.69659424, 0.26467443, 0.09451664, 0.12064714, 0.74327016, -0.42683735, 0.7224142, 0.5384469, 0.28640297, -0.12471223, -0.15897743, -0.6844432, 0.37484187, -0.03687971, 0.31364855, -0.021170173, -0.612679, 0.32353884, -0.5970573, 0.61028594, 0.42020017, -1.7334466, 0.46039987, -0.9162614, -0.29373717, -0.05451532, 0.28264257, -0.3324008, -0.22750598, -0.2093547, -0.15765487, 0.1966182, -0.09732825, -0.21215335, -0.09977222, 0.31783232, 0.12651812, -0.7119319, 0.6029823, -0.076986276, 0.29426858, 0.6282387, 0.96761394, 0.16980495, -0.88434565, 0.08342391, 1.3545424, -0.9959962, 0.1682437, -0.58397853, 0.80279213, 0.11801788, 0.617135, 0.5058607, -0.26755577, 0.29795882, 0.12982336, 0.048392955, -0.45890704, -2.2820585, -0.20953962, -0.41018605, 0.47668877, 0.06988187, 0.60794497, 0.01690673, 0.26303682, -0.16611117, 0.26127374, -0.21476722, 0.46648806, -1.3322687, 0.008883409, 1.2832841, -1.6002448, 0.09268014, 0.79260725, -1.0241929, -0.17868078, -0.81541544, -0.152424, 0.16231278, -0.1867193, -0.47227865, -1.2047882, 0.27546453, -0.53573954, 0.20274149, -0.36520964, 0.17260545, -0.066912025, 0.13904017, -0.42933536, 0.7535424, 0.4689158, -0.970638, -1.5014788, -0.9025702, 0.3019276, -0.54177743, 0.23408982, -0.52999765, 0.42089152, 0.024206802, -0.5120043, 0.34120038, 0.13194187, 0.5501017, 1.3368504, 0.79959404, -0.09066107, 0.091073774, -0.05757236, 0.11272625, 0.9982891, -0.94966465, 0.15112661, -0.1698705, 0.339688, -0.6586159, -0.69459844

Layer Name: dense_2
Weight 2 - Shape: (12,)
0.2762634, 0.015216234, 0.2689536, -0.033721752, 0.21710435, 0.16220717, -0.07166308, -0.36223567, 0.043453008, 0.065895, 0.1533022, 0.33975822

Layer Name: dense_3
Weight 1 - Shape: (12, 4)
0.90831697, 0.8360165, -1.4504303, -1.2286537, -1.1494738, -0.98392195, 0.692051, 0.21077241, 0.52871215, 0.96504337, 0.1920062, -1.024222, 0.43661317, -0.9504179, -0.19439834, 0.97764945, -1.4715544, 0.66085124, 0.6994233, -0.58891547, 0.20222524, -1.6351568, 1.7047473, -0.36797273, 0.6744604, -1.7927948, 0.78557086, -1.3686233, 1.1242261, 0.25590506, -1.119708, -1.9647303, -0.45295334, -3.010567, 1.6342276, -1.433726, -0.73329973, 0.99734914, -0.46320388, 0.818441, 3.593805, -3.4156044, 1.3610898, -3.5380926, -0.21439345, 1.4368087, 0.71986675, -2.5045214

Layer Name: dense_3
Weight 2 - Shape: (4,)
0.041111786, 0.03903585, -0.10212948, 0.031410933

